<?xml version="1.0"?>
<opencv_storage>
<cascade>
  <stageType>BOOST</stageType>
  <featureType>HAAR</featureType>
  <height>30</height>
  <width>15</width>
  <stageParams>
    <boostType>GAB</boostType>
    <minHitRate>9.9500000476837158e-01</minHitRate>
    <maxFalseAlarm>4.0000000596046448e-01</maxFalseAlarm>
    <weightTrimRate>9.4999999999999996e-01</weightTrimRate>
    <maxDepth>1</maxDepth>
    <maxWeakCount>100</maxWeakCount></stageParams>
  <featureParams>
    <maxCatCount>0</maxCatCount>
    <featSize>1</featSize>
    <mode>ALL</mode></featureParams>
  <stageNum>15</stageNum>
  <stages>
    <!-- stage 0 -->
    <_>
      <maxWeakCount>7</maxWeakCount>
      <stageThreshold>-1.8132512569427490e+00</stageThreshold>
      <weakClassifiers>
        <_>
          <internalNodes>
            0 -1 104 2.4189397692680359e-02</internalNodes>
          <leafValues>
            -8.7708336114883423e-01 9.1688311100006104e-01</leafValues></_>
        <_>
          <internalNodes>
            0 -1 3 -6.6919840872287750e-02</internalNodes>
          <leafValues>
            5.9707707166671753e-01 -8.0801278352737427e-01</leafValues></_>
        <_>
          <internalNodes>
            0 -1 27 1.3600620627403259e-01</internalNodes>
          <leafValues>
            -5.0712698698043823e-01 7.7180600166320801e-01</leafValues></_>
        <_>
          <internalNodes>
            0 -1 15 -2.2136489860713482e-03</internalNodes>
          <leafValues>
            -9.2404890060424805e-01 4.0997365117073059e-01</leafValues></_>
        <_>
          <internalNodes>
            0 -1 45 1.7999304458498955e-02</internalNodes>
          <leafValues>
            -4.3774226307868958e-01 5.9194535017013550e-01</leafValues></_>
        <_>
          <internalNodes>
            0 -1 34 -1.3664405560120940e-04</internalNodes>
          <leafValues>
            -9.7360205650329590e-01 2.1521000564098358e-01</leafValues></_>
        <_>
          <internalNodes>
            0 -1 43 -2.1647613029927015e-03</internalNodes>
          <leafValues>
            -8.1445688009262085e-01 1.9153051078319550e-01</leafValues></_></weakClassifiers></_>
    <!-- stage 1 -->
    <_>
      <maxWeakCount>5</maxWeakCount>
      <stageThreshold>-1.4156835079193115e+00</stageThreshold>
      <weakClassifiers>
        <_>
          <internalNodes>
            0 -1 103 1.8030177801847458e-02</internalNodes>
          <leafValues>
            -8.8351649045944214e-01 8.1463414430618286e-01</leafValues></_>
        <_>
          <internalNodes>
            0 -1 38 1.9275823235511780e-01</internalNodes>
          <leafValues>
            -5.1340562105178833e-01 7.6314973831176758e-01</leafValues></_>
        <_>
          <internalNodes>
            0 -1 9 -1.7504213377833366e-02</internalNodes>
          <leafValues>
            5.0731009244918823e-01 -6.9604825973510742e-01</leafValues></_>
        <_>
          <internalNodes>
            0 -1 85 -5.6005321675911546e-04</internalNodes>
          <leafValues>
            -8.8294255733489990e-01 2.6827090978622437e-01</leafValues></_>
        <_>
          <internalNodes>
            0 -1 94 -7.7738506661262363e-05</internalNodes>
          <leafValues>
            4.0901598334312439e-01 -6.0053169727325439e-01</leafValues></_></weakClassifiers></_>
    <!-- stage 2 -->
    <_>
      <maxWeakCount>7</maxWeakCount>
      <stageThreshold>-1.4698321819305420e+00</stageThreshold>
      <weakClassifiers>
        <_>
          <internalNodes>
            0 -1 91 5.6220352649688721e-02</internalNodes>
          <leafValues>
            -7.7338880300521851e-01 7.9166668653488159e-01</leafValues></_>
        <_>
          <internalNodes>
            0 -1 47 1.6458913683891296e-01</internalNodes>
          <leafValues>
            -5.4929083585739136e-01 7.1888041496276855e-01</leafValues></_>
        <_>
          <internalNodes>
            0 -1 2 -7.0517789572477341e-04</internalNodes>
          <leafValues>
            -8.8827836513519287e-01 3.0712926387786865e-01</leafValues></_>
        <_>
          <internalNodes>
            0 -1 16 5.9052673168480396e-03</internalNodes>
          <leafValues>
            2.5638148188591003e-01 -8.2307398319244385e-01</leafValues></_>
        <_>
          <internalNodes>
            0 -1 36 8.4096215665340424e-02</internalNodes>
          <leafValues>
            -3.1611618399620056e-01 7.7513617277145386e-01</leafValues></_>
        <_>
          <internalNodes>
            0 -1 87 2.0181763102300465e-04</internalNodes>
          <leafValues>
            2.1290719509124756e-01 -8.1303310394287109e-01</leafValues></_>
        <_>
          <internalNodes>
            0 -1 102 5.1447302103042603e-03</internalNodes>
          <leafValues>
            -3.3034691214561462e-01 5.8795332908630371e-01</leafValues></_></weakClassifiers></_>
    <!-- stage 3 -->
    <_>
      <maxWeakCount>7</maxWeakCount>
      <stageThreshold>-1.1378148794174194e+00</stageThreshold>
      <weakClassifiers>
        <_>
          <internalNodes>
            0 -1 78 7.5557917356491089e-02</internalNodes>
          <leafValues>
            -8.2044887542724609e-01 5.6250000000000000e-01</leafValues></_>
        <_>
          <internalNodes>
            0 -1 35 -5.9362514875829220e-03</internalNodes>
          <leafValues>
            5.0074356794357300e-01 -6.3880974054336548e-01</leafValues></_>
        <_>
          <internalNodes>
            0 -1 88 -1.6099886124720797e-05</internalNodes>
          <leafValues>
            -8.0259913206100464e-01 2.8186348080635071e-01</leafValues></_>
        <_>
          <internalNodes>
            0 -1 111 1.1752731370506808e-04</internalNodes>
          <leafValues>
            2.8507447242736816e-01 -8.7390339374542236e-01</leafValues></_>
        <_>
          <internalNodes>
            0 -1 100 2.2818330035079271e-04</internalNodes>
          <leafValues>
            2.2980025410652161e-01 -7.9029291868209839e-01</leafValues></_>
        <_>
          <internalNodes>
            0 -1 59 -1.0712583549320698e-02</internalNodes>
          <leafValues>
            3.3404469490051270e-01 -5.6534910202026367e-01</leafValues></_>
        <_>
          <internalNodes>
            0 -1 0 -1.3840906322002411e-03</internalNodes>
          <leafValues>
            -8.5947090387344360e-01 2.7512338757514954e-01</leafValues></_></weakClassifiers></_>
    <!-- stage 4 -->
    <_>
      <maxWeakCount>9</maxWeakCount>
      <stageThreshold>-1.2945913076400757e+00</stageThreshold>
      <weakClassifiers>
        <_>
          <internalNodes>
            0 -1 37 1.5880912542343140e-01</internalNodes>
          <leafValues>
            -6.8888890743255615e-01 5.1771426200866699e-01</leafValues></_>
        <_>
          <internalNodes>
            0 -1 13 -1.4899456501007080e-01</internalNodes>
          <leafValues>
            4.6214523911476135e-01 -6.3193142414093018e-01</leafValues></_>
        <_>
          <internalNodes>
            0 -1 92 -2.3299530148506165e-03</internalNodes>
          <leafValues>
            4.2581856250762939e-01 -5.6417751312255859e-01</leafValues></_>
        <_>
          <internalNodes>
            0 -1 67 8.1087189028039575e-04</internalNodes>
          <leafValues>
            3.5888144373893738e-01 -8.3391422033309937e-01</leafValues></_>
        <_>
          <internalNodes>
            0 -1 111 -1.6732451331336051e-04</internalNodes>
          <leafValues>
            -8.9846485853195190e-01 1.6095896065235138e-01</leafValues></_>
        <_>
          <internalNodes>
            0 -1 12 -4.9363571451976895e-04</internalNodes>
          <leafValues>
            -8.0167198181152344e-01 1.9644939899444580e-01</leafValues></_>
        <_>
          <internalNodes>
            0 -1 7 -5.1000335952267051e-04</internalNodes>
          <leafValues>
            -8.7930685281753540e-01 1.9275352358818054e-01</leafValues></_>
        <_>
          <internalNodes>
            0 -1 60 2.1474815905094147e-02</internalNodes>
          <leafValues>
            -3.7741646170616150e-01 5.9211629629135132e-01</leafValues></_>
        <_>
          <internalNodes>
            0 -1 24 -1.1305904627079144e-04</internalNodes>
          <leafValues>
            -9.5187687873840332e-01 1.5749862790107727e-01</leafValues></_></weakClassifiers></_>
    <!-- stage 5 -->
    <_>
      <maxWeakCount>11</maxWeakCount>
      <stageThreshold>-1.7751240730285645e+00</stageThreshold>
      <weakClassifiers>
        <_>
          <internalNodes>
            0 -1 103 3.0697476118803024e-02</internalNodes>
          <leafValues>
            -7.7723968029022217e-01 5.5973452329635620e-01</leafValues></_>
        <_>
          <internalNodes>
            0 -1 48 1.3574356213212013e-02</internalNodes>
          <leafValues>
            -6.2410694360733032e-01 5.4341661930084229e-01</leafValues></_>
        <_>
          <internalNodes>
            0 -1 23 2.1753032342530787e-04</internalNodes>
          <leafValues>
            2.5100427865982056e-01 -8.7115103006362915e-01</leafValues></_>
        <_>
          <internalNodes>
            0 -1 72 5.5056053679436445e-04</internalNodes>
          <leafValues>
            1.9251988828182220e-01 -7.7734810113906860e-01</leafValues></_>
        <_>
          <internalNodes>
            0 -1 96 3.2322546758223325e-05</internalNodes>
          <leafValues>
            -6.2499225139617920e-01 3.3975815773010254e-01</leafValues></_>
        <_>
          <internalNodes>
            0 -1 82 -1.8836295930668712e-04</internalNodes>
          <leafValues>
            -7.0177060365676880e-01 2.1001243591308594e-01</leafValues></_>
        <_>
          <internalNodes>
            0 -1 46 1.8228389672003686e-04</internalNodes>
          <leafValues>
            1.6318888962268829e-01 -9.9023514986038208e-01</leafValues></_>
        <_>
          <internalNodes>
            0 -1 61 2.4150844663381577e-02</internalNodes>
          <leafValues>
            -3.1740298867225647e-01 6.5484195947647095e-01</leafValues></_>
        <_>
          <internalNodes>
            0 -1 79 1.8158840248361230e-04</internalNodes>
          <leafValues>
            -5.2550953626632690e-01 3.0701324343681335e-01</leafValues></_>
        <_>
          <internalNodes>
            0 -1 64 -6.5929284319281578e-03</internalNodes>
          <leafValues>
            -9.5315659046173096e-01 1.5699192881584167e-01</leafValues></_>
        <_>
          <internalNodes>
            0 -1 29 5.3759083151817322e-02</internalNodes>
          <leafValues>
            1.1803294718265533e-01 -9.4002401828765869e-01</leafValues></_></weakClassifiers></_>
    <!-- stage 6 -->
    <_>
      <maxWeakCount>9</maxWeakCount>
      <stageThreshold>-1.6943075656890869e+00</stageThreshold>
      <weakClassifiers>
        <_>
          <internalNodes>
            0 -1 1 -2.8859209269285202e-02</internalNodes>
          <leafValues>
            4.1810345649719238e-01 -6.5336656570434570e-01</leafValues></_>
        <_>
          <internalNodes>
            0 -1 33 5.3462851792573929e-03</internalNodes>
          <leafValues>
            -6.8052875995635986e-01 3.7229397892951965e-01</leafValues></_>
        <_>
          <internalNodes>
            0 -1 8 -3.2312201801687479e-04</internalNodes>
          <leafValues>
            -8.9505320787429810e-01 2.8400933742523193e-01</leafValues></_>
        <_>
          <internalNodes>
            0 -1 68 1.2840080261230469e-01</internalNodes>
          <leafValues>
            -3.7947055697441101e-01 6.8305909633636475e-01</leafValues></_>
        <_>
          <internalNodes>
            0 -1 97 8.1090501043945551e-04</internalNodes>
          <leafValues>
            3.0722671747207642e-01 -7.1761310100555420e-01</leafValues></_>
        <_>
          <internalNodes>
            0 -1 22 -1.0961382940877229e-04</internalNodes>
          <leafValues>
            -8.5514461994171143e-01 2.2759750485420227e-01</leafValues></_>
        <_>
          <internalNodes>
            0 -1 108 5.7159413699992001e-05</internalNodes>
          <leafValues>
            -6.5646421909332275e-01 2.4790059030056000e-01</leafValues></_>
        <_>
          <internalNodes>
            0 -1 18 -4.0734693175181746e-04</internalNodes>
          <leafValues>
            -9.6707475185394287e-01 1.8337383866310120e-01</leafValues></_>
        <_>
          <internalNodes>
            0 -1 39 -2.7756828069686890e-01</internalNodes>
          <leafValues>
            5.5906921625137329e-01 -3.2668474316596985e-01</leafValues></_></weakClassifiers></_>
    <!-- stage 7 -->
    <_>
      <maxWeakCount>13</maxWeakCount>
      <stageThreshold>-1.6421331167221069e+00</stageThreshold>
      <weakClassifiers>
        <_>
          <internalNodes>
            0 -1 51 4.5614987611770630e-03</internalNodes>
          <leafValues>
            -7.8571426868438721e-01 3.1238779425621033e-01</leafValues></_>
        <_>
          <internalNodes>
            0 -1 25 4.2881738394498825e-02</internalNodes>
          <leafValues>
            -7.3875343799591064e-01 3.7114062905311584e-01</leafValues></_>
        <_>
          <internalNodes>
            0 -1 93 4.6330364421010017e-03</internalNodes>
          <leafValues>
            -4.5512905716896057e-01 5.4728317260742188e-01</leafValues></_>
        <_>
          <internalNodes>
            0 -1 89 1.0807808575918898e-04</internalNodes>
          <leafValues>
            2.8259652853012085e-01 -6.9489032030105591e-01</leafValues></_>
        <_>
          <internalNodes>
            0 -1 41 6.8325493484735489e-03</internalNodes>
          <leafValues>
            2.0588473975658417e-01 -8.5649114847183228e-01</leafValues></_>
        <_>
          <internalNodes>
            0 -1 89 -1.4027944416739047e-04</internalNodes>
          <leafValues>
            -8.2036036252975464e-01 1.4465640485286713e-01</leafValues></_>
        <_>
          <internalNodes>
            0 -1 105 5.1567098125815392e-04</internalNodes>
          <leafValues>
            -5.7842248678207397e-01 2.4386797845363617e-01</leafValues></_>
        <_>
          <internalNodes>
            0 -1 107 -2.9419898055493832e-04</internalNodes>
          <leafValues>
            -9.3095338344573975e-01 1.6461232304573059e-01</leafValues></_>
        <_>
          <internalNodes>
            0 -1 50 -1.3211712939664721e-05</internalNodes>
          <leafValues>
            2.5458899140357971e-01 -6.1893153190612793e-01</leafValues></_>
        <_>
          <internalNodes>
            0 -1 6 -4.4294618070125580e-02</internalNodes>
          <leafValues>
            -8.0852013826370239e-01 1.6580906510353088e-01</leafValues></_>
        <_>
          <internalNodes>
            0 -1 101 3.1442049657925963e-04</internalNodes>
          <leafValues>
            1.2410502880811691e-01 -8.5795909166336060e-01</leafValues></_>
        <_>
          <internalNodes>
            0 -1 65 1.1760486289858818e-02</internalNodes>
          <leafValues>
            -2.6277020573616028e-01 5.7143032550811768e-01</leafValues></_>
        <_>
          <internalNodes>
            0 -1 77 -1.6015823930501938e-02</internalNodes>
          <leafValues>
            5.5447685718536377e-01 -2.9600396752357483e-01</leafValues></_></weakClassifiers></_>
    <!-- stage 8 -->
    <_>
      <maxWeakCount>9</maxWeakCount>
      <stageThreshold>-1.4137337207794189e+00</stageThreshold>
      <weakClassifiers>
        <_>
          <internalNodes>
            0 -1 84 7.6478091068565845e-04</internalNodes>
          <leafValues>
            4.3984219431877136e-01 -8.1284916400909424e-01</leafValues></_>
        <_>
          <internalNodes>
            0 -1 5 6.6321075428277254e-04</internalNodes>
          <leafValues>
            -8.4883874654769897e-01 3.7071216106414795e-01</leafValues></_>
        <_>
          <internalNodes>
            0 -1 49 2.5994209572672844e-02</internalNodes>
          <leafValues>
            -6.9673711061477661e-01 3.4044367074966431e-01</leafValues></_>
        <_>
          <internalNodes>
            0 -1 17 -4.1130431927740574e-03</internalNodes>
          <leafValues>
            -6.7752188444137573e-01 3.7142628431320190e-01</leafValues></_>
        <_>
          <internalNodes>
            0 -1 73 -1.1266734451055527e-02</internalNodes>
          <leafValues>
            -7.6603102684020996e-01 2.6512336730957031e-01</leafValues></_>
        <_>
          <internalNodes>
            0 -1 52 -5.1255361177027225e-03</internalNodes>
          <leafValues>
            3.3713492751121521e-01 -5.3836762905120850e-01</leafValues></_>
        <_>
          <internalNodes>
            0 -1 110 1.4557473150489386e-05</internalNodes>
          <leafValues>
            -6.1078417301177979e-01 3.0183169245719910e-01</leafValues></_>
        <_>
          <internalNodes>
            0 -1 63 1.0634178295731544e-02</internalNodes>
          <leafValues>
            1.6797599196434021e-01 -8.5862928628921509e-01</leafValues></_>
        <_>
          <internalNodes>
            0 -1 32 8.6518339230678976e-05</internalNodes>
          <leafValues>
            -5.9416317939758301e-01 2.4321217834949493e-01</leafValues></_></weakClassifiers></_>
    <!-- stage 9 -->
    <_>
      <maxWeakCount>12</maxWeakCount>
      <stageThreshold>-1.4824516773223877e+00</stageThreshold>
      <weakClassifiers>
        <_>
          <internalNodes>
            0 -1 31 3.8994969800114632e-03</internalNodes>
          <leafValues>
            -8.2847899198532104e-01 3.3812949061393738e-01</leafValues></_>
        <_>
          <internalNodes>
            0 -1 26 1.0363435745239258e-01</internalNodes>
          <leafValues>
            -5.8618056774139404e-01 4.6352413296699524e-01</leafValues></_>
        <_>
          <internalNodes>
            0 -1 40 3.6305156536400318e-03</internalNodes>
          <leafValues>
            2.5687512755393982e-01 -8.1237745285034180e-01</leafValues></_>
        <_>
          <internalNodes>
            0 -1 112 3.5651122743729502e-05</internalNodes>
          <leafValues>
            -7.4312788248062134e-01 2.2006213665008545e-01</leafValues></_>
        <_>
          <internalNodes>
            0 -1 109 2.7993129333481193e-04</internalNodes>
          <leafValues>
            2.5872668623924255e-01 -7.8850877285003662e-01</leafValues></_>
        <_>
          <internalNodes>
            0 -1 4 -5.9363769832998514e-04</internalNodes>
          <leafValues>
            -8.6018967628479004e-01 1.5808372199535370e-01</leafValues></_>
        <_>
          <internalNodes>
            0 -1 20 7.5175636447966099e-04</internalNodes>
          <leafValues>
            1.7999912798404694e-01 -7.6975375413894653e-01</leafValues></_>
        <_>
          <internalNodes>
            0 -1 90 1.7395380884408951e-02</internalNodes>
          <leafValues>
            -5.9756976366043091e-01 2.6024270057678223e-01</leafValues></_>
        <_>
          <internalNodes>
            0 -1 30 1.5572796110063791e-04</internalNodes>
          <leafValues>
            -6.7608040571212769e-01 2.4373979866504669e-01</leafValues></_>
        <_>
          <internalNodes>
            0 -1 44 -9.9622481502592564e-04</internalNodes>
          <leafValues>
            -6.2992680072784424e-01 2.8129377961158752e-01</leafValues></_>
        <_>
          <internalNodes>
            0 -1 99 -5.8512878604233265e-04</internalNodes>
          <leafValues>
            -8.7085634469985962e-01 1.4672644436359406e-01</leafValues></_>
        <_>
          <internalNodes>
            0 -1 53 1.2971248477697372e-02</internalNodes>
          <leafValues>
            -2.5253918766975403e-01 6.9758689403533936e-01</leafValues></_></weakClassifiers></_>
    <!-- stage 10 -->
    <_>
      <maxWeakCount>12</maxWeakCount>
      <stageThreshold>-1.7818561792373657e+00</stageThreshold>
      <weakClassifiers>
        <_>
          <internalNodes>
            0 -1 95 -2.9281674869707786e-05</internalNodes>
          <leafValues>
            3.7695851922035217e-01 -8.4496122598648071e-01</leafValues></_>
        <_>
          <internalNodes>
            0 -1 70 -2.8950562700629234e-03</internalNodes>
          <leafValues>
            4.1550120711326599e-01 -6.7340403795242310e-01</leafValues></_>
        <_>
          <internalNodes>
            0 -1 21 1.2720545055344701e-04</internalNodes>
          <leafValues>
            2.3992411792278290e-01 -9.0047067403793335e-01</leafValues></_>
        <_>
          <internalNodes>
            0 -1 104 2.2243151441216469e-02</internalNodes>
          <leafValues>
            -7.4533337354660034e-01 2.8431341052055359e-01</leafValues></_>
        <_>
          <internalNodes>
            0 -1 75 1.6369929071515799e-03</internalNodes>
          <leafValues>
            3.1893476843833923e-01 -8.2582366466522217e-01</leafValues></_>
        <_>
          <internalNodes>
            0 -1 83 -7.7606986451428384e-05</internalNodes>
          <leafValues>
            -7.9311573505401611e-01 2.6773318648338318e-01</leafValues></_>
        <_>
          <internalNodes>
            0 -1 28 4.8583321040496230e-04</internalNodes>
          <leafValues>
            -7.0517820119857788e-01 2.9622808098793030e-01</leafValues></_>
        <_>
          <internalNodes>
            0 -1 86 1.3988491264171898e-04</internalNodes>
          <leafValues>
            -5.3573775291442871e-01 3.9920347929000854e-01</leafValues></_>
        <_>
          <internalNodes>
            0 -1 42 -4.3291687965393066e-02</internalNodes>
          <leafValues>
            7.9083836078643799e-01 -2.5691747665405273e-01</leafValues></_>
        <_>
          <internalNodes>
            0 -1 66 1.2516354909166694e-03</internalNodes>
          <leafValues>
            3.9188146591186523e-01 -5.2432829141616821e-01</leafValues></_>
        <_>
          <internalNodes>
            0 -1 55 -5.7506710290908813e-03</internalNodes>
          <leafValues>
            4.0301564335823059e-01 -5.0220465660095215e-01</leafValues></_>
        <_>
          <internalNodes>
            0 -1 10 -1.3427356258034706e-02</internalNodes>
          <leafValues>
            -9.1352260112762451e-01 1.6610796749591827e-01</leafValues></_></weakClassifiers></_>
    <!-- stage 11 -->
    <_>
      <maxWeakCount>7</maxWeakCount>
      <stageThreshold>-1.4278457164764404e+00</stageThreshold>
      <weakClassifiers>
        <_>
          <internalNodes>
            0 -1 54 3.2787117362022400e-01</internalNodes>
          <leafValues>
            -5.0784474611282349e-01 9.2292869091033936e-01</leafValues></_>
        <_>
          <internalNodes>
            0 -1 58 -4.2049619369208813e-03</internalNodes>
          <leafValues>
            4.6498930454254150e-01 -7.1002566814422607e-01</leafValues></_>
        <_>
          <internalNodes>
            0 -1 57 -5.0478428602218628e-04</internalNodes>
          <leafValues>
            -5.9858274459838867e-01 5.0671893358230591e-01</leafValues></_>
        <_>
          <internalNodes>
            0 -1 62 3.1931582838296890e-02</internalNodes>
          <leafValues>
            -6.4137220382690430e-01 4.0743952989578247e-01</leafValues></_>
        <_>
          <internalNodes>
            0 -1 11 2.4500250583514571e-04</internalNodes>
          <leafValues>
            -7.6497215032577515e-01 3.7168383598327637e-01</leafValues></_>
        <_>
          <internalNodes>
            0 -1 14 -3.4995861351490021e-02</internalNodes>
          <leafValues>
            -8.8150727748870850e-01 2.3384018242359161e-01</leafValues></_>
        <_>
          <internalNodes>
            0 -1 80 -1.2678052007686347e-04</internalNodes>
          <leafValues>
            -6.2435609102249146e-01 3.4714016318321228e-01</leafValues></_></weakClassifiers></_>
    <!-- stage 12 -->
    <_>
      <maxWeakCount>5</maxWeakCount>
      <stageThreshold>-1.8396362066268921e+00</stageThreshold>
      <weakClassifiers>
        <_>
          <internalNodes>
            0 -1 56 3.5555131034925580e-05</internalNodes>
          <leafValues>
            -6.4750236272811890e-01 8.2361733913421631e-01</leafValues></_>
        <_>
          <internalNodes>
            0 -1 74 -1.9709568005055189e-04</internalNodes>
          <leafValues>
            -6.4379262924194336e-01 7.0022755861282349e-01</leafValues></_>
        <_>
          <internalNodes>
            0 -1 98 7.2865630500018597e-05</internalNodes>
          <leafValues>
            5.5736255645751953e-01 -7.5428783893585205e-01</leafValues></_>
        <_>
          <internalNodes>
            0 -1 106 1.5759740024805069e-02</internalNodes>
          <leafValues>
            -4.8220771551132202e-01 7.9056429862976074e-01</leafValues></_>
        <_>
          <internalNodes>
            0 -1 76 -6.9736808654852211e-05</internalNodes>
          <leafValues>
            -6.5586584806442261e-01 6.3999426364898682e-01</leafValues></_></weakClassifiers></_>
    <!-- stage 13 -->
    <_>
      <maxWeakCount>4</maxWeakCount>
      <stageThreshold>-1.6128941774368286e+00</stageThreshold>
      <weakClassifiers>
        <_>
          <internalNodes>
            0 -1 69 2.9774947324767709e-04</internalNodes>
          <leafValues>
            -7.0566725730895996e-01 1.</leafValues></_>
        <_>
          <internalNodes>
            0 -1 71 6.8836391437798738e-04</internalNodes>
          <leafValues>
            7.4302256107330322e-01 -8.2169175148010254e-01</leafValues></_>
        <_>
          <internalNodes>
            0 -1 81 -1.4679523883387446e-04</internalNodes>
          <leafValues>
            -8.2181072235107422e-01 7.1568280458450317e-01</leafValues></_>
        <_>
          <internalNodes>
            0 -1 113 1.1819016071967781e-04</internalNodes>
          <leafValues>
            7.3627555370330811e-01 -8.4397637844085693e-01</leafValues></_></weakClassifiers></_>
    <!-- stage 14 -->
    <_>
      <maxWeakCount>1</maxWeakCount>
      <stageThreshold>1.</stageThreshold>
      <weakClassifiers>
        <_>
          <internalNodes>
            0 -1 19 2.3459177464246750e-04</internalNodes>
          <leafValues>
            1. -9.9785864353179932e-01</leafValues></_></weakClassifiers></_></stages>
  <features>
    <_>
      <rects>
        <_>
          0 0 1 18 -1.</_>
        <_>
          0 6 1 6 3.</_></rects>
      <tilted>0</tilted></_>
    <_>
      <rects>
        <_>
          0 0 4 10 -1.</_>
        <_>
          2 0 2 10 2.</_></rects>
      <tilted>0</tilted></_>
    <_>
      <rects>
        <_>
          0 1 1 27 -1.</_>
        <_>
          0 10 1 9 3.</_></rects>
      <tilted>0</tilted></_>
    <_>
      <rects>
        <_>
          0 1 6 28 -1.</_>
        <_>
          3 1 3 28 2.</_></rects>
      <tilted>0</tilted></_>
    <_>
      <rects>
        <_>
          0 5 1 9 -1.</_>
        <_>
          0 8 1 3 3.</_></rects>
      <tilted>0</tilted></_>
    <_>
      <rects>
        <_>
          0 6 8 12 -1.</_>
        <_>
          0 12 8 6 2.</_></rects>
      <tilted>0</tilted></_>
    <_>
      <rects>
        <_>
          0 7 14 12 -1.</_>
        <_>
          0 7 7 6 2.</_>
        <_>
          7 13 7 6 2.</_></rects>
      <tilted>0</tilted></_>
    <_>
      <rects>
        <_>
          0 8 1 15 -1.</_>
        <_>
          0 13 1 5 3.</_></rects>
      <tilted>0</tilted></_>
    <_>
      <rects>
        <_>
          0 9 1 20 -1.</_>
        <_>
          0 14 1 10 2.</_></rects>
      <tilted>0</tilted></_>
    <_>
      <rects>
        <_>
          0 11 6 7 -1.</_>
        <_>
          3 11 3 7 2.</_></rects>
      <tilted>0</tilted></_>
    <_>
      <rects>
        <_>
          0 13 10 6 -1.</_>
        <_>
          0 13 5 3 2.</_>
        <_>
          5 16 5 3 2.</_></rects>
      <tilted>0</tilted></_>
    <_>
      <rects>
        <_>
          0 13 8 8 -1.</_>
        <_>
          0 17 8 4 2.</_></rects>
      <tilted>0</tilted></_>
    <_>
      <rects>
        <_>
          0 14 2 12 -1.</_>
        <_>
          0 20 2 6 2.</_></rects>
      <tilted>0</tilted></_>
    <_>
      <rects>
        <_>
          0 14 12 16 -1.</_>
        <_>
          3 14 6 16 2.</_></rects>
      <tilted>0</tilted></_>
    <_>
      <rects>
        <_>
          0 14 14 12 -1.</_>
        <_>
          0 14 7 6 2.</_>
        <_>
          7 20 7 6 2.</_></rects>
      <tilted>0</tilted></_>
    <_>
      <rects>
        <_>
          0 18 4 10 -1.</_>
        <_>
          0 23 4 5 2.</_></rects>
      <tilted>0</tilted></_>
    <_>
      <rects>
        <_>
          0 18 12 6 -1.</_>
        <_>
          0 18 6 3 2.</_>
        <_>
          6 21 6 3 2.</_></rects>
      <tilted>0</tilted></_>
    <_>
      <rects>
        <_>
          0 19 14 4 -1.</_>
        <_>
          0 19 7 2 2.</_>
        <_>
          7 21 7 2 2.</_></rects>
      <tilted>0</tilted></_>
    <_>
      <rects>
        <_>
          0 20 1 9 -1.</_>
        <_>
          0 23 1 3 3.</_></rects>
      <tilted>0</tilted></_>
    <_>
      <rects>
        <_>
          0 23 1 3 -1.</_>
        <_>
          0 24 1 1 3.</_></rects>
      <tilted>0</tilted></_>
    <_>
      <rects>
        <_>
          0 23 12 2 -1.</_>
        <_>
          0 23 6 1 2.</_>
        <_>
          6 24 6 1 2.</_></rects>
      <tilted>0</tilted></_>
    <_>
      <rects>
        <_>
          0 25 1 4 -1.</_>
        <_>
          0 26 1 2 2.</_></rects>
      <tilted>0</tilted></_>
    <_>
      <rects>
        <_>
          0 25 2 2 -1.</_>
        <_>
          0 26 2 1 2.</_></rects>
      <tilted>0</tilted></_>
    <_>
      <rects>
        <_>
          0 26 1 4 -1.</_>
        <_>
          0 28 1 2 2.</_></rects>
      <tilted>0</tilted></_>
    <_>
      <rects>
        <_>
          0 28 1 2 -1.</_>
        <_>
          0 29 1 1 2.</_></rects>
      <tilted>0</tilted></_>
    <_>
      <rects>
        <_>
          1 0 8 26 -1.</_>
        <_>
          1 13 8 13 2.</_></rects>
      <tilted>0</tilted></_>
    <_>
      <rects>
        <_>
          1 0 13 16 -1.</_>
        <_>
          1 8 13 8 2.</_></rects>
      <tilted>0</tilted></_>
    <_>
      <rects>
        <_>
          1 0 14 18 -1.</_>
        <_>
          1 9 14 9 2.</_></rects>
      <tilted>0</tilted></_>
    <_>
      <rects>
        <_>
          1 14 11 8 -1.</_>
        <_>
          1 18 11 4 2.</_></rects>
      <tilted>0</tilted></_>
    <_>
      <rects>
        <_>
          1 15 14 1 -1.</_>
        <_>
          1 15 7 1 2.</_></rects>
      <tilted>1</tilted></_>
    <_>
      <rects>
        <_>
          1 17 8 1 -1.</_>
        <_>
          1 17 4 1 2.</_></rects>
      <tilted>1</tilted></_>
    <_>
      <rects>
        <_>
          1 18 14 1 -1.</_>
        <_>
          8 18 7 1 2.</_></rects>
      <tilted>0</tilted></_>
    <_>
      <rects>
        <_>
          1 18 11 6 -1.</_>
        <_>
          1 21 11 3 2.</_></rects>
      <tilted>0</tilted></_>
    <_>
      <rects>
        <_>
          1 23 14 1 -1.</_>
        <_>
          8 23 7 1 2.</_></rects>
      <tilted>0</tilted></_>
    <_>
      <rects>
        <_>
          1 27 2 1 -1.</_>
        <_>
          1 27 1 1 2.</_></rects>
      <tilted>1</tilted></_>
    <_>
      <rects>
        <_>
          2 0 4 2 -1.</_>
        <_>
          2 0 4 1 2.</_></rects>
      <tilted>1</tilted></_>
    <_>
      <rects>
        <_>
          2 0 12 12 -1.</_>
        <_>
          2 6 12 6 2.</_></rects>
      <tilted>0</tilted></_>
    <_>
      <rects>
        <_>
          2 0 13 20 -1.</_>
        <_>
          2 10 13 10 2.</_></rects>
      <tilted>0</tilted></_>
    <_>
      <rects>
        <_>
          2 0 13 22 -1.</_>
        <_>
          2 11 13 11 2.</_></rects>
      <tilted>0</tilted></_>
    <_>
      <rects>
        <_>
          2 5 9 24 -1.</_>
        <_>
          5 13 3 8 9.</_></rects>
      <tilted>0</tilted></_>
    <_>
      <rects>
        <_>
          2 13 13 2 -1.</_>
        <_>
          2 13 13 1 2.</_></rects>
      <tilted>1</tilted></_>
    <_>
      <rects>
        <_>
          2 16 12 2 -1.</_>
        <_>
          2 16 12 1 2.</_></rects>
      <tilted>1</tilted></_>
    <_>
      <rects>
        <_>
          2 17 12 1 -1.</_>
        <_>
          6 21 4 1 3.</_></rects>
      <tilted>1</tilted></_>
    <_>
      <rects>
        <_>
          2 22 13 4 -1.</_>
        <_>
          2 24 13 2 2.</_></rects>
      <tilted>0</tilted></_>
    <_>
      <rects>
        <_>
          2 23 8 2 -1.</_>
        <_>
          2 23 4 1 2.</_>
        <_>
          6 24 4 1 2.</_></rects>
      <tilted>0</tilted></_>
    <_>
      <rects>
        <_>
          2 25 12 3 -1.</_>
        <_>
          8 25 6 3 2.</_></rects>
      <tilted>0</tilted></_>
    <_>
      <rects>
        <_>
          2 26 1 2 -1.</_>
        <_>
          2 26 1 1 2.</_></rects>
      <tilted>1</tilted></_>
    <_>
      <rects>
        <_>
          3 12 10 18 -1.</_>
        <_>
          8 12 5 18 2.</_></rects>
      <tilted>0</tilted></_>
    <_>
      <rects>
        <_>
          3 13 10 2 -1.</_>
        <_>
          8 13 5 2 2.</_></rects>
      <tilted>0</tilted></_>
    <_>
      <rects>
        <_>
          3 20 12 5 -1.</_>
        <_>
          9 20 6 5 2.</_></rects>
      <tilted>0</tilted></_>
    <_>
      <rects>
        <_>
          3 25 3 2 -1.</_>
        <_>
          3 25 3 1 2.</_></rects>
      <tilted>1</tilted></_>
    <_>
      <rects>
        <_>
          3 26 12 1 -1.</_>
        <_>
          9 26 6 1 2.</_></rects>
      <tilted>0</tilted></_>
    <_>
      <rects>
        <_>
          4 7 6 4 -1.</_>
        <_>
          3 8 6 2 2.</_></rects>
      <tilted>1</tilted></_>
    <_>
      <rects>
        <_>
          4 8 9 1 -1.</_>
        <_>
          7 11 3 1 3.</_></rects>
      <tilted>1</tilted></_>
    <_>
      <rects>
        <_>
          5 0 9 30 -1.</_>
        <_>
          8 10 3 10 9.</_></rects>
      <tilted>0</tilted></_>
    <_>
      <rects>
        <_>
          5 19 10 1 -1.</_>
        <_>
          5 19 5 1 2.</_></rects>
      <tilted>1</tilted></_>
    <_>
      <rects>
        <_>
          6 0 3 21 -1.</_>
        <_>
          6 7 3 7 3.</_></rects>
      <tilted>0</tilted></_>
    <_>
      <rects>
        <_>
          6 9 5 12 -1.</_>
        <_>
          6 13 5 4 3.</_></rects>
      <tilted>0</tilted></_>
    <_>
      <rects>
        <_>
          6 11 6 6 -1.</_>
        <_>
          8 13 2 6 3.</_></rects>
      <tilted>1</tilted></_>
    <_>
      <rects>
        <_>
          6 19 5 6 -1.</_>
        <_>
          4 21 5 2 3.</_></rects>
      <tilted>1</tilted></_>
    <_>
      <rects>
        <_>
          7 0 4 18 -1.</_>
        <_>
          7 6 4 6 3.</_></rects>
      <tilted>0</tilted></_>
    <_>
      <rects>
        <_>
          7 0 7 16 -1.</_>
        <_>
          7 4 7 8 2.</_></rects>
      <tilted>0</tilted></_>
    <_>
      <rects>
        <_>
          7 2 8 20 -1.</_>
        <_>
          7 2 4 10 2.</_>
        <_>
          11 12 4 10 2.</_></rects>
      <tilted>0</tilted></_>
    <_>
      <rects>
        <_>
          7 17 5 10 -1.</_>
        <_>
          7 22 5 5 2.</_></rects>
      <tilted>0</tilted></_>
    <_>
      <rects>
        <_>
          7 18 8 6 -1.</_>
        <_>
          7 21 8 3 2.</_></rects>
      <tilted>0</tilted></_>
    <_>
      <rects>
        <_>
          8 0 2 16 -1.</_>
        <_>
          8 4 2 8 2.</_></rects>
      <tilted>0</tilted></_>
    <_>
      <rects>
        <_>
          8 6 2 14 -1.</_>
        <_>
          9 6 1 14 2.</_></rects>
      <tilted>0</tilted></_>
    <_>
      <rects>
        <_>
          8 21 7 4 -1.</_>
        <_>
          8 22 7 2 2.</_></rects>
      <tilted>0</tilted></_>
    <_>
      <rects>
        <_>
          9 0 5 18 -1.</_>
        <_>
          9 9 5 9 2.</_></rects>
      <tilted>0</tilted></_>
    <_>
      <rects>
        <_>
          9 5 6 4 -1.</_>
        <_>
          8 6 6 2 2.</_></rects>
      <tilted>1</tilted></_>
    <_>
      <rects>
        <_>
          9 9 6 9 -1.</_>
        <_>
          9 9 3 9 2.</_></rects>
      <tilted>1</tilted></_>
    <_>
      <rects>
        <_>
          9 19 3 4 -1.</_>
        <_>
          9 21 3 2 2.</_></rects>
      <tilted>0</tilted></_>
    <_>
      <rects>
        <_>
          9 19 6 4 -1.</_>
        <_>
          9 20 6 2 2.</_></rects>
      <tilted>0</tilted></_>
    <_>
      <rects>
        <_>
          9 20 4 10 -1.</_>
        <_>
          9 25 4 5 2.</_></rects>
      <tilted>0</tilted></_>
    <_>
      <rects>
        <_>
          10 13 5 3 -1.</_>
        <_>
          10 14 5 1 3.</_></rects>
      <tilted>0</tilted></_>
    <_>
      <rects>
        <_>
          10 14 1 9 -1.</_>
        <_>
          10 17 1 3 3.</_></rects>
      <tilted>0</tilted></_>
    <_>
      <rects>
        <_>
          10 26 2 2 -1.</_>
        <_>
          10 26 1 1 2.</_>
        <_>
          11 27 1 1 2.</_></rects>
      <tilted>0</tilted></_>
    <_>
      <rects>
        <_>
          11 0 4 28 -1.</_>
        <_>
          11 7 4 14 2.</_></rects>
      <tilted>0</tilted></_>
    <_>
      <rects>
        <_>
          11 0 4 30 -1.</_>
        <_>
          11 15 4 15 2.</_></rects>
      <tilted>0</tilted></_>
    <_>
      <rects>
        <_>
          11 9 4 18 -1.</_>
        <_>
          11 15 4 6 3.</_></rects>
      <tilted>0</tilted></_>
    <_>
      <rects>
        <_>
          11 11 3 1 -1.</_>
        <_>
          12 12 1 1 3.</_></rects>
      <tilted>1</tilted></_>
    <_>
      <rects>
        <_>
          11 15 4 10 -1.</_>
        <_>
          11 15 2 5 2.</_>
        <_>
          13 20 2 5 2.</_></rects>
      <tilted>0</tilted></_>
    <_>
      <rects>
        <_>
          11 15 3 10 -1.</_>
        <_>
          11 20 3 5 2.</_></rects>
      <tilted>0</tilted></_>
    <_>
      <rects>
        <_>
          11 16 4 8 -1.</_>
        <_>
          11 16 2 4 2.</_>
        <_>
          13 20 2 4 2.</_></rects>
      <tilted>0</tilted></_>
    <_>
      <rects>
        <_>
          11 18 4 10 -1.</_>
        <_>
          11 23 4 5 2.</_></rects>
      <tilted>0</tilted></_>
    <_>
      <rects>
        <_>
          11 19 2 8 -1.</_>
        <_>
          11 21 2 4 2.</_></rects>
      <tilted>0</tilted></_>
    <_>
      <rects>
        <_>
          11 21 3 9 -1.</_>
        <_>
          11 24 3 3 3.</_></rects>
      <tilted>0</tilted></_>
    <_>
      <rects>
        <_>
          12 17 2 1 -1.</_>
        <_>
          12 17 1 1 2.</_></rects>
      <tilted>1</tilted></_>
    <_>
      <rects>
        <_>
          12 18 3 12 -1.</_>
        <_>
          13 22 1 4 9.</_></rects>
      <tilted>0</tilted></_>
    <_>
      <rects>
        <_>
          12 19 2 3 -1.</_>
        <_>
          12 20 2 1 3.</_></rects>
      <tilted>0</tilted></_>
    <_>
      <rects>
        <_>
          13 0 1 30 -1.</_>
        <_>
          13 15 1 15 2.</_></rects>
      <tilted>0</tilted></_>
    <_>
      <rects>
        <_>
          13 0 2 26 -1.</_>
        <_>
          13 13 2 13 2.</_></rects>
      <tilted>0</tilted></_>
    <_>
      <rects>
        <_>
          13 2 2 16 -1.</_>
        <_>
          14 2 1 16 2.</_></rects>
      <tilted>0</tilted></_>
    <_>
      <rects>
        <_>
          13 3 2 26 -1.</_>
        <_>
          13 3 1 13 2.</_>
        <_>
          14 16 1 13 2.</_></rects>
      <tilted>0</tilted></_>
    <_>
      <rects>
        <_>
          13 6 2 21 -1.</_>
        <_>
          14 6 1 21 2.</_></rects>
      <tilted>0</tilted></_>
    <_>
      <rects>
        <_>
          13 10 2 20 -1.</_>
        <_>
          14 10 1 20 2.</_></rects>
      <tilted>0</tilted></_>
    <_>
      <rects>
        <_>
          13 13 2 16 -1.</_>
        <_>
          13 13 1 8 2.</_>
        <_>
          14 21 1 8 2.</_></rects>
      <tilted>0</tilted></_>
    <_>
      <rects>
        <_>
          13 19 2 8 -1.</_>
        <_>
          13 21 2 4 2.</_></rects>
      <tilted>0</tilted></_>
    <_>
      <rects>
        <_>
          13 21 1 4 -1.</_>
        <_>
          13 23 1 2 2.</_></rects>
      <tilted>0</tilted></_>
    <_>
      <rects>
        <_>
          13 22 2 8 -1.</_>
        <_>
          14 22 1 8 2.</_></rects>
      <tilted>0</tilted></_>
    <_>
      <rects>
        <_>
          13 23 2 6 -1.</_>
        <_>
          13 23 1 3 2.</_>
        <_>
          14 26 1 3 2.</_></rects>
      <tilted>0</tilted></_>
    <_>
      <rects>
        <_>
          13 23 2 3 -1.</_>
        <_>
          13 24 2 1 3.</_></rects>
      <tilted>0</tilted></_>
    <_>
      <rects>
        <_>
          14 0 1 15 -1.</_>
        <_>
          14 5 1 5 3.</_></rects>
      <tilted>0</tilted></_>
    <_>
      <rects>
        <_>
          14 0 1 28 -1.</_>
        <_>
          14 14 1 14 2.</_></rects>
      <tilted>0</tilted></_>
    <_>
      <rects>
        <_>
          14 0 1 30 -1.</_>
        <_>
          14 15 1 15 2.</_></rects>
      <tilted>0</tilted></_>
    <_>
      <rects>
        <_>
          14 9 1 21 -1.</_>
        <_>
          14 16 1 7 3.</_></rects>
      <tilted>0</tilted></_>
    <_>
      <rects>
        <_>
          14 10 1 12 -1.</_>
        <_>
          14 16 1 6 2.</_></rects>
      <tilted>0</tilted></_>
    <_>
      <rects>
        <_>
          14 18 1 6 -1.</_>
        <_>
          14 21 1 3 2.</_></rects>
      <tilted>0</tilted></_>
    <_>
      <rects>
        <_>
          14 18 1 12 -1.</_>
        <_>
          14 22 1 4 3.</_></rects>
      <tilted>0</tilted></_>
    <_>
      <rects>
        <_>
          14 19 1 6 -1.</_>
        <_>
          14 21 1 2 3.</_></rects>
      <tilted>0</tilted></_>
    <_>
      <rects>
        <_>
          14 21 1 9 -1.</_>
        <_>
          14 24 1 3 3.</_></rects>
      <tilted>0</tilted></_>
    <_>
      <rects>
        <_>
          14 22 1 4 -1.</_>
        <_>
          14 23 1 2 2.</_></rects>
      <tilted>0</tilted></_>
    <_>
      <rects>
        <_>
          14 23 1 6 -1.</_>
        <_>
          14 23 1 3 2.</_></rects>
      <tilted>1</tilted></_>
    <_>
      <rects>
        <_>
          14 24 1 3 -1.</_>
        <_>
          14 25 1 1 3.</_></rects>
      <tilted>0</tilted></_></features></cascade>
</opencv_storage>
